digraph Tree {
node [shape=box, style="filled, rounded", color="black", fontname="helvetica"] ;
edge [fontname="helvetica"] ;
0 [label="ST_Slope_Up <= 0.5\ngini = 0.496\nsamples = 734\nvalue = [333, 401]\nclass = Heart Disease", fillcolor="#ddeefb"] ;
1 [label="ChestPainType_ASY <= 0.5\ngini = 0.305\nsamples = 427\nvalue = [80, 347]\nclass = Heart Disease", fillcolor="#67b4eb"] ;
0 -> 1 [labeldistance=2.5, labelangle=45, headlabel="True"] ;
2 [label="Sex_F <= 0.5\ngini = 0.475\nsamples = 131\nvalue = [51, 80]\nclass = Heart Disease", fillcolor="#b7dbf6"] ;
1 -> 2 ;
3 [label="MaxHR <= 136.5\ngini = 0.407\nsamples = 102\nvalue = [29, 73]\nclass = Heart Disease", fillcolor="#88c4ef"] ;
2 -> 3 ;
4 [label="ExerciseAngina_Y <= 0.5\ngini = 0.237\nsamples = 51\nvalue = [7, 44]\nclass = Heart Disease", fillcolor="#58ade9"] ;
3 -> 4 ;
5 [label="gini = 0.401\nsamples = 18\nvalue = [5, 13]\nclass = Heart Disease", fillcolor="#85c3ef"] ;
4 -> 5 ;
6 [label="RestingBP <= 130.5\ngini = 0.114\nsamples = 33\nvalue = [2, 31]\nclass = Heart Disease", fillcolor="#46a3e7"] ;
4 -> 6 ;
7 [label="gini = 0.245\nsamples = 14\nvalue = [2, 12]\nclass = Heart Disease", fillcolor="#5aade9"] ;
6 -> 7 ;
8 [label="gini = 0.0\nsamples = 19\nvalue = [0, 19]\nclass = Heart Disease", fillcolor="#399de5"] ;
6 -> 8 ;
9 [label="ST_Slope_Down <= 0.5\ngini = 0.491\nsamples = 51\nvalue = [22, 29]\nclass = Heart Disease", fillcolor="#cfe7f9"] ;
3 -> 9 ;
10 [label="Oldpeak <= 0.1\ngini = 0.47\nsamples = 45\nvalue = [17, 28]\nclass = Heart Disease", fillcolor="#b1d8f5"] ;
9 -> 10 ;
11 [label="gini = 0.0\nsamples = 6\nvalue = [0, 6]\nclass = Heart Disease", fillcolor="#399de5"] ;
10 -> 11 ;
12 [label="Oldpeak <= 1.9\ngini = 0.492\nsamples = 39\nvalue = [17, 22]\nclass = Heart Disease", fillcolor="#d2e9f9"] ;
10 -> 12 ;
13 [label="MaxHR <= 148.5\ngini = 0.493\nsamples = 25\nvalue = [14, 11]\nclass = Normal", fillcolor="#f9e4d5"] ;
12 -> 13 ;
14 [label="gini = 0.32\nsamples = 10\nvalue = [8, 2]\nclass = Normal", fillcolor="#eca06a"] ;
13 -> 14 ;
15 [label="gini = 0.48\nsamples = 15\nvalue = [6, 9]\nclass = Heart Disease", fillcolor="#bddef6"] ;
13 -> 15 ;
16 [label="gini = 0.337\nsamples = 14\nvalue = [3, 11]\nclass = Heart Disease", fillcolor="#6fb8ec"] ;
12 -> 16 ;
17 [label="gini = 0.278\nsamples = 6\nvalue = [5, 1]\nclass = Normal", fillcolor="#ea9a61"] ;
9 -> 17 ;
18 [label="MaxHR <= 112.0\ngini = 0.366\nsamples = 29\nvalue = [22, 7]\nclass = Normal", fillcolor="#eda978"] ;
2 -> 18 ;
19 [label="gini = 0.375\nsamples = 4\nvalue = [1, 3]\nclass = Heart Disease", fillcolor="#7bbeee"] ;
18 -> 19 ;
20 [label="Age <= 55.5\ngini = 0.269\nsamples = 25\nvalue = [21, 4]\nclass = Normal", fillcolor="#ea995f"] ;
18 -> 20 ;
21 [label="gini = 0.111\nsamples = 17\nvalue = [16, 1]\nclass = Normal", fillcolor="#e78945"] ;
20 -> 21 ;
22 [label="gini = 0.469\nsamples = 8\nvalue = [5, 3]\nclass = Normal", fillcolor="#f5cdb0"] ;
20 -> 22 ;
23 [label="Sex_F <= 0.5\ngini = 0.177\nsamples = 296\nvalue = [29, 267]\nclass = Heart Disease", fillcolor="#4fa8e8"] ;
1 -> 23 ;
24 [label="MaxHR <= 147.5\ngini = 0.132\nsamples = 254\nvalue = [18, 236]\nclass = Heart Disease", fillcolor="#48a4e7"] ;
23 -> 24 ;
25 [label="RestingBP <= 132.5\ngini = 0.103\nsamples = 221\nvalue = [12, 209]\nclass = Heart Disease", fillcolor="#44a3e6"] ;
24 -> 25 ;
26 [label="RestingECG_ST <= 0.5\ngini = 0.159\nsamples = 103\nvalue = [9, 94]\nclass = Heart Disease", fillcolor="#4ca6e7"] ;
25 -> 26 ;
27 [label="Cholesterol <= 293.5\ngini = 0.095\nsamples = 80\nvalue = [4, 76]\nclass = Heart Disease", fillcolor="#43a2e6"] ;
26 -> 27 ;
28 [label="Age <= 63.5\ngini = 0.055\nsamples = 71\nvalue = [2, 69]\nclass = Heart Disease", fillcolor="#3fa0e6"] ;
27 -> 28 ;
29 [label="RestingBP <= 112.5\ngini = 0.03\nsamples = 65\nvalue = [1, 64]\nclass = Heart Disease", fillcolor="#3c9fe5"] ;
28 -> 29 ;
30 [label="gini = 0.111\nsamples = 17\nvalue = [1, 16]\nclass = Heart Disease", fillcolor="#45a3e7"] ;
29 -> 30 ;
31 [label="gini = 0.0\nsamples = 48\nvalue = [0, 48]\nclass = Heart Disease", fillcolor="#399de5"] ;
29 -> 31 ;
32 [label="gini = 0.278\nsamples = 6\nvalue = [1, 5]\nclass = Heart Disease", fillcolor="#61b1ea"] ;
28 -> 32 ;
33 [label="gini = 0.346\nsamples = 9\nvalue = [2, 7]\nclass = Heart Disease", fillcolor="#72b9ec"] ;
27 -> 33 ;
34 [label="FastingBS_0 <= 0.5\ngini = 0.34\nsamples = 23\nvalue = [5, 18]\nclass = Heart Disease", fillcolor="#70b8ec"] ;
26 -> 34 ;
35 [label="gini = 0.0\nsamples = 6\nvalue = [0, 6]\nclass = Heart Disease", fillcolor="#399de5"] ;
34 -> 35 ;
36 [label="gini = 0.415\nsamples = 17\nvalue = [5, 12]\nclass = Heart Disease", fillcolor="#8bc6f0"] ;
34 -> 36 ;
37 [label="Age <= 73.0\ngini = 0.05\nsamples = 118\nvalue = [3, 115]\nclass = Heart Disease", fillcolor="#3ea0e6"] ;
25 -> 37 ;
38 [label="Age <= 42.5\ngini = 0.034\nsamples = 114\nvalue = [2, 112]\nclass = Heart Disease", fillcolor="#3d9fe5"] ;
37 -> 38 ;
39 [label="gini = 0.32\nsamples = 5\nvalue = [1, 4]\nclass = Heart Disease", fillcolor="#6ab6ec"] ;
38 -> 39 ;
40 [label="Oldpeak <= 0.55\ngini = 0.018\nsamples = 109\nvalue = [1, 108]\nclass = Heart Disease", fillcolor="#3b9ee5"] ;
38 -> 40 ;
41 [label="gini = 0.111\nsamples = 17\nvalue = [1, 16]\nclass = Heart Disease", fillcolor="#45a3e7"] ;
40 -> 41 ;
42 [label="gini = 0.0\nsamples = 92\nvalue = [0, 92]\nclass = Heart Disease", fillcolor="#399de5"] ;
40 -> 42 ;
43 [label="gini = 0.375\nsamples = 4\nvalue = [1, 3]\nclass = Heart Disease", fillcolor="#7bbeee"] ;
37 -> 43 ;
44 [label="FastingBS_0 <= 0.5\ngini = 0.298\nsamples = 33\nvalue = [6, 27]\nclass = Heart Disease", fillcolor="#65b3eb"] ;
24 -> 44 ;
45 [label="gini = 0.0\nsamples = 15\nvalue = [0, 15]\nclass = Heart Disease", fillcolor="#399de5"] ;
44 -> 45 ;
46 [label="gini = 0.444\nsamples = 18\nvalue = [6, 12]\nclass = Heart Disease", fillcolor="#9ccef2"] ;
44 -> 46 ;
47 [label="Oldpeak <= 1.3\ngini = 0.387\nsamples = 42\nvalue = [11, 31]\nclass = Heart Disease", fillcolor="#7fc0ee"] ;
23 -> 47 ;
48 [label="RestingECG_Normal <= 0.5\ngini = 0.48\nsamples = 25\nvalue = [10, 15]\nclass = Heart Disease", fillcolor="#bddef6"] ;
47 -> 48 ;
49 [label="gini = 0.397\nsamples = 11\nvalue = [8, 3]\nclass = Normal", fillcolor="#efb083"] ;
48 -> 49 ;
50 [label="gini = 0.245\nsamples = 14\nvalue = [2, 12]\nclass = Heart Disease", fillcolor="#5aade9"] ;
48 -> 50 ;
51 [label="gini = 0.111\nsamples = 17\nvalue = [1, 16]\nclass = Heart Disease", fillcolor="#45a3e7"] ;
47 -> 51 ;
52 [label="Cholesterol <= 42.5\ngini = 0.29\nsamples = 307\nvalue = [253, 54]\nclass = Normal", fillcolor="#eb9c63"] ;
0 -> 52 [labeldistance=2.5, labelangle=-45, headlabel="False"] ;
53 [label="FastingBS_0 <= 0.5\ngini = 0.43\nsamples = 32\nvalue = [10, 22]\nclass = Heart Disease", fillcolor="#93caf1"] ;
52 -> 53 ;
54 [label="gini = 0.0\nsamples = 14\nvalue = [0, 14]\nclass = Heart Disease", fillcolor="#399de5"] ;
53 -> 54 ;
55 [label="gini = 0.494\nsamples = 18\nvalue = [10, 8]\nclass = Normal", fillcolor="#fae6d7"] ;
53 -> 55 ;
56 [label="ExerciseAngina_N <= 0.5\ngini = 0.206\nsamples = 275\nvalue = [243, 32]\nclass = Normal", fillcolor="#e89253"] ;
52 -> 56 ;
57 [label="ChestPainType_ASY <= 0.5\ngini = 0.499\nsamples = 31\nvalue = [16, 15]\nclass = Normal", fillcolor="#fdf7f3"] ;
56 -> 57 ;
58 [label="gini = 0.0\nsamples = 8\nvalue = [8, 0]\nclass = Normal", fillcolor="#e58139"] ;
57 -> 58 ;
59 [label="Oldpeak <= 0.7\ngini = 0.454\nsamples = 23\nvalue = [8, 15]\nclass = Heart Disease", fillcolor="#a3d1f3"] ;
57 -> 59 ;
60 [label="gini = 0.473\nsamples = 13\nvalue = [8, 5]\nclass = Normal", fillcolor="#f5d0b5"] ;
59 -> 60 ;
61 [label="gini = 0.0\nsamples = 10\nvalue = [0, 10]\nclass = Heart Disease", fillcolor="#399de5"] ;
59 -> 61 ;
62 [label="Age <= 56.5\ngini = 0.13\nsamples = 244\nvalue = [227, 17]\nclass = Normal", fillcolor="#e78a48"] ;
56 -> 62 ;
63 [label="RestingECG_LVH <= 0.5\ngini = 0.06\nsamples = 195\nvalue = [189, 6]\nclass = Normal", fillcolor="#e6853f"] ;
62 -> 63 ;
64 [label="ChestPainType_ASY <= 0.5\ngini = 0.023\nsamples = 170\nvalue = [168, 2]\nclass = Normal", fillcolor="#e5823b"] ;
63 -> 64 ;
65 [label="gini = 0.0\nsamples = 135\nvalue = [135, 0]\nclass = Normal", fillcolor="#e58139"] ;
64 -> 65 ;
66 [label="Age <= 51.5\ngini = 0.108\nsamples = 35\nvalue = [33, 2]\nclass = Normal", fillcolor="#e78945"] ;
64 -> 66 ;
67 [label="gini = 0.0\nsamples = 26\nvalue = [26, 0]\nclass = Normal", fillcolor="#e58139"] ;
66 -> 67 ;
68 [label="gini = 0.346\nsamples = 9\nvalue = [7, 2]\nclass = Normal", fillcolor="#eca572"] ;
66 -> 68 ;
69 [label="RestingBP <= 121.0\ngini = 0.269\nsamples = 25\nvalue = [21, 4]\nclass = Normal", fillcolor="#ea995f"] ;
63 -> 69 ;
70 [label="gini = 0.463\nsamples = 11\nvalue = [7, 4]\nclass = Normal", fillcolor="#f4c9aa"] ;
69 -> 70 ;
71 [label="gini = 0.0\nsamples = 14\nvalue = [14, 0]\nclass = Normal", fillcolor="#e58139"] ;
69 -> 71 ;
72 [label="MaxHR <= 151.5\ngini = 0.348\nsamples = 49\nvalue = [38, 11]\nclass = Normal", fillcolor="#eda572"] ;
62 -> 72 ;
73 [label="Cholesterol <= 260.5\ngini = 0.147\nsamples = 25\nvalue = [23, 2]\nclass = Normal", fillcolor="#e78c4a"] ;
72 -> 73 ;
74 [label="gini = 0.0\nsamples = 16\nvalue = [16, 0]\nclass = Normal", fillcolor="#e58139"] ;
73 -> 74 ;
75 [label="gini = 0.346\nsamples = 9\nvalue = [7, 2]\nclass = Normal", fillcolor="#eca572"] ;
73 -> 75 ;
76 [label="Cholesterol <= 304.0\ngini = 0.469\nsamples = 24\nvalue = [15, 9]\nclass = Normal", fillcolor="#f5cdb0"] ;
72 -> 76 ;
77 [label="gini = 0.401\nsamples = 18\nvalue = [13, 5]\nclass = Normal", fillcolor="#efb185"] ;
76 -> 77 ;
78 [label="gini = 0.444\nsamples = 6\nvalue = [2, 4]\nclass = Heart Disease", fillcolor="#9ccef2"] ;
76 -> 78 ;
}